-9.28921 -16.9767 -11.1009 -19.1436 1.66229 12.2247 -9.84428 -12.0945 -24.8927 0.535208 1.33456 0.959966 -2.24863 -14.3523 -5.28719 -19.4031 0.160238 3.12471 -21.7541 11.6951 9.30512 -13.2326 12.6183 24.1225 -2.8692 5.07012 1.29353 1.64342 -0.0898213 -0.459637 -10.2099 -0.617823 1.36064 -18.2114 0.346518 3.63215 0.47403 0.834994 0.904974 0.928232 -1.25539 -0.978014 0.38027 0.808577 0.849472 0.164626 -0.00219839 -0.14179 0.307908 0.816974 0.764729 0.820604 0.19768 -0.876626 0.49393 -1.27481 -1.049 0.445919 -1.23658 -1.15172 0.0724656 -0.22259 -0.169558 -0.221915 0.0122983 0.221684 1.12713 -0.00445865 -0.958071 1.42593 0.0895519 -1.01121 -4.62254 0.312115 0.828885 0.149335 1.19767 -2.41357 -1.48911 0.797016 0.411767 1.09207 -1.11042 0.171107 0.519021 -0.337231 0.179902 0.474802 2.12088 0.195939 -0.666424 1.35734 -1.99023 -1.90121 1.44411 -2.0443 -2.50047 0.500783 -0.50194 0.0104117 0.63331 -0.397369 -0.857811 1.11767 0.586767 -1.3043 0.894027 1.06452 -0.646823 -6.11482 0.403265 0.648998 0.50419 0.887186 -1.65798 -1.07971 0.54068 0.685223 0.868358 -0.149538 -0.0916252 -0.0792129 0.225404 0.693441 0.554276 1.10703 0.0932887 -0.920407 0.691975 -1.34084 -1.31993 0.706525 -1.57716 -1.40168 0.31022 -0.186417 -0.121158 -0.34575 -0.0132084 0.0382551 1.19401 -0.00560584 -1.10786 1.06102 0.288812 -0.958345 -5.18917 0.415017 0.749787 0.760652 0.92592 -1.4284 -1.0056 0.457222 0.779875 0.878349 0.0547911 -0.0940359 -0.131209 0.242016 0.812639 0.671034 0.901266 0.157016 -0.948565 0.597139 -1.30355 -1.15549 0.552596 -1.38051 -1.29032 0.175421 -0.20773 -0.104597 -0.325987 0.0225168 0.178695 1.21174 -0.0179799 -1.04674 1.29359 0.204449 -0.975549 -4.97386 0.49353 0.787037 0.891134 0.820541 -1.18112 -0.938238 0.377098 0.776523 0.821314 0.172992 -0.0046944 -0.169657 0.341075 0.766085 0.740341 0.749802 0.197638 -0.832031 0.443629 -1.21376 -1.04631 0.381834 -1.14993 -1.09656 0.057139 -0.195823 -0.169362 -0.176914 0.00415944 0.201987 1.06026 0.0114352 -0.866516 1.37184 0.0420822 -0.995946 -4.30832 0.407977 0.641455 0.39363 0.886035 -1.77816 -1.13189 0.582012 0.652416 0.906285 -0.261171 -0.0590473 0.0160642 0.196178 0.60199 0.532314 1.27438 0.0779976 -0.890199 0.798494 -1.41657 -1.39701 0.822847 -1.70032 -1.51073 0.376712 -0.203433 -0.138344 -0.291082 -0.0458584 -0.0807523 1.19586 0.0217295 -1.15257 0.965063 0.372899 -0.942661 -5.31612 0.518548 0.860801 0.945217 0.932723 -1.24516 -0.983484 0.353611 0.827072 0.865035 0.19455 0.0373778 -0.155755 0.318319 0.806532 0.79333 0.808793 0.228405 -0.852623 0.477454 -1.28417 -1.07193 0.396905 -1.2052 -1.15363 0.0679125 -0.238836 -0.190352 -0.198261 0.0106948 0.237508 1.11528 -0.0159976 -0.957719 1.47083 0.058826 -1.03483 -4.61721 0.447784 0.814627 0.870384 0.955279 -1.34616 -1.00321 0.428261 0.795336 0.894684 0.127522 -0.0382921 -0.143305 0.278417 0.825014 0.741397 0.847213 0.183189 -0.914711 0.543247 -1.30009 -1.10962 0.486332 -1.29353 -1.21482 0.134789 -0.212242 -0.125098 -0.273329 0.0236419 0.219427 1.17395 0.000974828 -0.995096 1.39099 0.139806 -1.00097 -4.8285 0.405155 0.667538 0.596572 0.8895 -1.58565 -1.05029 0.50417 0.713752 0.874151 -0.078041 -0.112872 -0.100761 0.22298 0.747349 0.596507 1.01891 0.113216 -0.932217 0.647822 -1.33146 -1.26805 0.646105 -1.51045 -1.3708 0.242928 -0.183923 -0.117286 -0.366166 -0.00593345 0.103585 1.21173 -0.025689 -1.08465 1.14351 0.260339 -0.967177 -5.14362 0.501975 0.849428 0.921278 0.925945 -1.29791 -0.982335 0.391677 0.839817 0.877508 0.165793 -0.0212879 -0.163667 0.305978 0.807425 0.780342 0.791667 0.213406 -0.886376 0.522716 -1.29396 -1.09116 0.422663 -1.24431 -1.18408 0.103421 -0.214725 -0.148225 -0.22477 0.0141893 0.233408 1.13582 0.00894609 -0.974467 1.44287 0.0967169 -1.01473 -4.70997 -0.458717 -0.954363 -0.465044 -0.420614 -0.450381 -0.534796 -0.49188 -0.445753 -0.445138 -0.466704 1.77698 -0.467779 -0.92123 -0.471562 -0.418319 -0.466229 -0.513608 -0.493407 -0.446554 -0.44778 -0.476183 1.70326 -0.466039 -0.979241 -0.475398 -0.413116 -0.450444 -0.535312 -0.486828 -0.432687 -0.441359 -0.45686 1.81833 -0.457064 -0.994423 -0.476935 -0.416071 -0.434512 -0.551073 -0.464203 -0.428085 -0.447915 -0.464647 1.85931 -0.467279 -0.949586 -0.465933 -0.415649 -0.450223 -0.525733 -0.483764 -0.455207 -0.435181 -0.480617 1.75231 -0.459051 -0.957458 -0.470734 -0.418345 -0.451352 -0.524071 -0.482176 -0.448631 -0.442893 -0.467278 1.7574 -0.471593 -0.95521 -0.473811 -0.410033 -0.449818 -0.532882 -0.480509 -0.453967 -0.439613 -0.467652 1.78109 -0.44713 -0.980565 -0.480568 -0.418601 -0.435131 -0.543333 -0.484331 -0.438621 -0.438886 -0.463218 1.82343 -0.464844 -0.95522 -0.458477 -0.423617 -0.451486 -0.531102 -0.490798 -0.445495 -0.43395 -0.47409 1.75884 -0.473597 -0.941481 -0.461534 -0.425874 -0.460449 -0.514297 -0.49395 -0.455228 -0.431207 -0.471787 1.72919 0.921595 0.910828 0.925612 0.931402 0.918368 0.917284 0.92856 0.918728 0.919992 0.917717 -3.17039 -0.919266 -0.922427 -0.922611 -0.922274 -0.9206 -0.921877 -0.912822 -0.929122 -0.920205 -0.91943 3.1702 